{
   "type":"NeuralNetwork",
   "sizes":[
      104,
      106,
      1
   ],
   "layers":[
      {
         "weights":[
            
         ],
         "biases":[
            
         ]
      },
      {
         "weights":[
            [
               -0.08271877467632294,
               0.0039633410051465034,
               0.0752573162317276,
               -0.12294460088014603,
               0.011833298951387405,
               -0.057294849306344986,
               0.07162019610404968,
               0.06804237514734268,
               0.10935001820325851,
               0.18335694074630737,
               -0.03906809538602829,
               0.13020476698875427,
               -0.09089004248380661,
               0.03752536699175835,
               0.11939110606908798,
               0.03935782238841057,
               0.1260814070701599,
               0.038402341306209564,
               -0.04840407520532608,
               -0.06946001946926117,
               -0.04758700728416443,
               -0.10927395522594452,
               -0.01739184930920601,
               0.00342846242710948,
               -0.002269879449158907,
               0.19038614630699158,
               0.0963154137134552,
               -0.10825016349554062,
               -0.04737645387649536,
               0.0633784681558609,
               0.11930771172046661,
               0.19308562576770782,
               -0.06783249229192734,
               0.041594069451093674,
               0.12951549887657166,
               0.17805036902427673,
               -0.10772509127855301,
               0.13790678977966309,
               0.10287223011255264,
               0.12268593907356262,
               -0.19613248109817505,
               -0.050107114017009735,
               -0.02939560078084469,
               0.07273875176906586,
               0.0830128863453865,
               0.08349739015102386,
               0.1713200807571411,
               0.17758479714393616,
               0.0742151215672493,
               -0.17866212129592896,
               0.07641500979661942,
               -0.03179382532835007,
               -0.09778831899166107,
               0.10958977043628693,
               0.06534535437822342,
               0.06618265807628632,
               0.17058853805065155,
               -0.1897033154964447,
               -0.19421012699604034,
               0.06966967135667801,
               -0.1535356193780899,
               0.09441298991441727,
               0.1498061865568161,
               0.12574800848960876,
               -0.05411487817764282,
               0.11057616025209427,
               -0.19516482949256897,
               -0.16815119981765747,
               -0.19793161749839783,
               -0.14426371455192566,
               -0.11876247823238373,
               -0.021569278091192245,
               -0.0981210321187973,
               -0.160047248005867,
               0.03047451749444008,
               -0.06701376289129257,
               0.01564992219209671,
               -0.10082704573869705,
               -0.0816253125667572,
               -0.12456432729959488,
               0.0674561932682991,
               0.017959313467144966,
               -0.08501136302947998,
               0.03252744302153587,
               0.08121849596500397,
               -0.151163712143898,
               -0.019448870792984962,
               0.056818798184394836,
               -0.030315065756440163,
               0.17419230937957764,
               -0.05550144612789154,
               -0.13139644265174866,
               0.1971433013677597,
               -0.11669944226741791,
               0.07374534010887146,
               0.1349717229604721,
               -0.108833909034729,
               0.15922993421554565,
               0.07435639947652817,
               0.0543946698307991,
               -0.14017735421657562,
               0.0809202492237091,
               -0.08616529405117035,
               0.17081616818904877
            ],
            [
               0.11132136732339859,
               0.15523642301559448,
               0.14807631075382233,
               -0.01835019327700138,
               0.11905381828546524,
               -0.007187800016254187,
               0.10933967679738998,
               0.19382882118225098,
               0.12403560429811478,
               -0.037060171365737915,
               0.13214725255966187,
               0.15371768176555634,
               0.1858072429895401,
               0.1257551908493042,
               0.15822286903858185,
               0.012234262190759182,
               -0.0568084791302681,
               0.3086605668067932,
               -0.2264726608991623,
               0.07115829735994339,
               -0.1285104602575302,
               -0.07024376839399338,
               0.06259914487600327,
               0.23922543227672577,
               -0.016430586576461792,
               -0.12802186608314514,
               0.11832822859287262,
               -0.001246428582817316,
               -0.0063075474463403225,
               -0.07785605639219284,
               0.0883512943983078,
               -0.061065711081027985,
               0.033653922379016876,
               0.1867760270833969,
               0.013887833803892136,
               -0.13164375722408295,
               0.06076217442750931,
               -0.18220077455043793,
               0.1430225372314453,
               -0.053871892392635345,
               -0.23547674715518951,
               -0.13136719167232513,
               -0.0634392723441124,
               -0.13444378972053528,
               0.21095556020736694,
               -0.140711709856987,
               0.14013047516345978,
               -0.15638934075832367,
               -0.22066184878349304,
               0.1335749477148056,
               -0.1926255077123642,
               0.12561726570129395,
               0.12415670603513718,
               0.13400335609912872,
               -0.11947687715291977,
               -0.07698697596788406,
               0.09051451086997986,
               0.06313293427228928,
               -0.1333330273628235,
               0.04085658863186836,
               0.13859213888645172,
               0.05705801025032997,
               0.1392202526330948,
               0.1031884178519249,
               0.019159598276019096,
               0.19072358310222626,
               0.03420593589544296,
               -0.20063798129558563,
               -0.18370163440704346,
               -0.174161896109581,
               0.14760681986808777,
               0.20031605660915375,
               0.09428632259368896,
               0.00035488433786667883,
               0.15666255354881287,
               0.08421467244625092,
               -0.11940406262874603,
               -0.05901934206485748,
               0.17491096258163452,
               0.06332729011774063,
               -0.14928077161312103,
               0.12918731570243835,
               0.17486774921417236,
               0.13090625405311584,
               0.008905220776796341,
               0.1968572586774826,
               0.008578600361943245,
               -0.10381114482879639,
               0.06913827359676361,
               -0.15068788826465607,
               -0.06085903197526932,
               -0.13327160477638245,
               0.17141544818878174,
               0.05101879686117172,
               0.13607104122638702,
               -0.16949410736560822,
               0.1906273066997528,
               0.05843230336904526,
               -0.054066069424152374,
               0.13606663048267365,
               -0.12349475920200348,
               -0.00643389904871583,
               0.18586769700050354,
               -0.04762175306677818
            ],
            [
               0.165726900100708,
               0.12060531973838806,
               0.11770506203174591,
               0.05656885355710983,
               0.08932362496852875,
               0.16085080802440643,
               0.1247483640909195,
               -0.1551242619752884,
               -0.017827803269028664,
               0.06714946031570435,
               -0.012951470911502838,
               0.19932594895362854,
               -0.1674916297197342,
               0.14712131023406982,
               -0.06015658751130104,
               0.13536500930786133,
               0.10132797807455063,
               -0.050972141325473785,
               0.10168563574552536,
               0.3104794919490814,
               -0.016656218096613884,
               0.1411607414484024,
               -0.17627345025539398,
               -0.14051899313926697,
               0.16911402344703674,
               -0.17657470703125,
               0.17597194015979767,
               0.06109250336885452,
               0.10455010086297989,
               -0.163643017411232,
               -0.10675273090600967,
               -0.05983670800924301,
               -0.031216701492667198,
               -0.12527096271514893,
               -0.016933491453528404,
               -0.12161354720592499,
               -0.13332371413707733,
               -0.1862732619047165,
               0.09831719100475311,
               -0.1259469985961914,
               0.11925447732210159,
               0.004392873961478472,
               -0.12273676693439484,
               -0.003937228117138147,
               0.04511122778058052,
               0.03728058561682701,
               -0.004828290082514286,
               -0.14524492621421814,
               0.2328866422176361,
               -0.2026534378528595,
               -0.12472932040691376,
               0.045517850667238235,
               -0.09289603680372238,
               -0.0525042749941349,
               -0.14643578231334686,
               0.03598664700984955,
               -0.10274104028940201,
               -0.15848633646965027,
               0.12001662701368332,
               0.06472456455230713,
               0.027087610214948654,
               -0.05182145908474922,
               -0.18346479535102844,
               0.07566996663808823,
               0.2137654572725296,
               -0.20433034002780914,
               -0.049685362726449966,
               0.19187049567699432,
               -0.12915195524692535,
               -0.11445064097642899,
               0.09585519134998322,
               0.01735301874577999,
               -0.11393214017152786,
               -0.12057723104953766,
               0.17982563376426697,
               0.1409911960363388,
               -0.15808111429214478,
               0.0020491336472332478,
               0.21326597034931183,
               0.18430626392364502,
               -0.12557747960090637,
               0.005531562026590109,
               -0.10388422012329102,
               0.13069380819797516,
               -0.05242057889699936,
               -0.18999801576137543,
               0.05885026976466179,
               -0.15450483560562134,
               -0.07386529445648193,
               -0.09822816401720047,
               0.13131389021873474,
               -0.04965174198150635,
               0.17831191420555115,
               -0.16130198538303375,
               -0.11158433556556702,
               0.2629183232784271,
               -0.18960776925086975,
               -0.12121319770812988,
               -0.2135852426290512,
               0.019833123311400414,
               -0.11565632373094559,
               -0.13325153291225433,
               -0.08992557972669601,
               -0.04141268506646156
            ],
            [
               0.003347378922626376,
               -0.03785616159439087,
               -0.08359801024198532,
               -0.005733041558414698,
               -0.08303166925907135,
               -0.08559080958366394,
               -0.08010812848806381,
               0.11059923470020294,
               -0.08714223653078079,
               -0.18812361359596252,
               -0.06280533224344254,
               0.11663632094860077,
               -0.06448526680469513,
               -0.09797834604978561,
               -0.19770583510398865,
               0.046664752066135406,
               -0.00011639160220511258,
               -0.11559110879898071,
               0.1966184675693512,
               -0.022532859817147255,
               0.14247316122055054,
               -0.023620963096618652,
               0.16124290227890015,
               -0.05116808041930199,
               -0.08564868569374084,
               -0.0040961457416415215,
               0.14289192855358124,
               -0.0016767476918175817,
               -0.01845434680581093,
               0.14289619028568268,
               0.1307583451271057,
               -0.16857247054576874,
               -0.02437889575958252,
               -0.11982696503400803,
               -0.055719878524541855,
               -0.06499466300010681,
               -0.021580444648861885,
               0.14483268558979034,
               0.056123100221157074,
               -0.17267826199531555,
               0.14491228759288788,
               0.19539472460746765,
               -0.15620552003383636,
               0.041234783828258514,
               0.13866734504699707,
               0.14342381060123444,
               -0.20125992596149445,
               0.18108661472797394,
               0.0548061840236187,
               -0.10459788143634796,
               0.12061481177806854,
               0.08040156215429306,
               0.10210215300321579,
               -0.16907525062561035,
               -0.013809310272336006,
               0.17470858991146088,
               -0.16276760399341583,
               -0.1900499016046524,
               -0.10862542688846588,
               0.08522528409957886,
               0.10517866164445877,
               0.023095598444342613,
               -0.20033478736877441,
               0.16056257486343384,
               0.1110820472240448,
               -0.14139342308044434,
               -0.05447499826550484,
               -0.00914815440773964,
               -0.03959672898054123,
               -0.07411163300275803,
               0.1936223804950714,
               -0.04730868339538574,
               0.157619908452034,
               0.1555408090353012,
               0.02696850523352623,
               -0.09782733023166656,
               -0.23973217606544495,
               -0.12659257650375366,
               -0.030005386099219322,
               0.056002046912908554,
               -0.07444817572832108,
               -0.06623155623674393,
               0.1744639277458191,
               -0.09743349254131317,
               -0.02499963901937008,
               -0.028180938214063644,
               0.2246527522802353,
               0.10417304933071136,
               -0.16960668563842773,
               0.18017643690109253,
               0.058950912207365036,
               -0.1688944697380066,
               -0.14378131926059723,
               -0.14612241089344025,
               0.1449848860502243,
               0.05718427151441574,
               -0.04259295389056206,
               -0.13449999690055847,
               0.010288054123520851,
               -0.15970173478126526,
               0.11814114451408386,
               -0.17362654209136963,
               0.05416766181588173,
               0.09325172007083893
            ],
            [
               0.03603619337081909,
               -0.025646721944212914,
               -0.14825339615345,
               0.03362242504954338,
               -0.17091801762580872,
               -0.07840659469366074,
               0.08767998218536377,
               0.1289045661687851,
               0.10730323195457458,
               -0.06274489313364029,
               -0.044682491570711136,
               0.1328156590461731,
               -0.19775442779064178,
               0.026067284867167473,
               -0.018212443217635155,
               0.022151337936520576,
               -0.04977785423398018,
               -0.25242385268211365,
               -0.08646532148122787,
               0.27364233136177063,
               0.11617965996265411,
               0.13397052884101868,
               -0.023235967382788658,
               -0.21877224743366241,
               -0.17767904698848724,
               0.007061174139380455,
               -0.05154988169670105,
               -0.17978887259960175,
               0.20101337134838104,
               0.21148332953453064,
               -0.00010620230750646442,
               -0.0025656758807599545,
               0.0904538482427597,
               0.12381867319345474,
               -0.0799349844455719,
               -0.1788099706172943,
               -0.2105596959590912,
               0.12934987246990204,
               -0.20574216544628143,
               0.15971647202968597,
               0.06424658000469208,
               -0.07101956754922867,
               0.08423241227865219,
               0.06257233768701553,
               -0.049896180629730225,
               0.27581650018692017,
               -0.0785171389579773,
               -0.11809796839952469,
               -0.05248766019940376,
               0.004198899492621422,
               0.022324899211525917,
               0.2057671844959259,
               -0.06501856446266174,
               -0.12070203572511673,
               0.01533837802708149,
               0.051057368516922,
               0.1361505687236786,
               -0.08232282847166061,
               0.018227841705083847,
               -0.025171760469675064,
               0.20850740373134613,
               0.08101209998130798,
               -0.05851462483406067,
               0.00476725772023201,
               -0.08998386561870575,
               -0.17369526624679565,
               -0.08390799909830093,
               0.12461148947477341,
               -0.16281355917453766,
               -0.09280136972665787,
               0.1717122495174408,
               -0.05737334489822388,
               -0.16393126547336578,
               0.2311791032552719,
               0.008696146309375763,
               0.07691527903079987,
               -0.2735537886619568,
               0.2511899769306183,
               0.11967840045690536,
               0.20400527119636536,
               0.12068876624107361,
               0.13059906661510468,
               -0.06789922714233398,
               0.02591567672789097,
               -0.039230890572071075,
               -0.16006629168987274,
               0.06981181353330612,
               0.0713118240237236,
               0.1257355958223343,
               -0.08040833473205566,
               0.15657366812229156,
               0.029400937259197235,
               0.043654464185237885,
               -0.047354795038700104,
               -0.1538342982530594,
               -0.08401868492364883,
               -0.0355096161365509,
               0.12606079876422882,
               0.1032543033361435,
               -0.14597028493881226,
               -0.13290183246135712,
               -0.11342981457710266,
               -0.107656329870224,
               0.16760997474193573
            ],
            [
               -0.009557701647281647,
               -0.10841940343379974,
               -0.047602955251932144,
               -0.12444549053907394,
               0.09460346400737762,
               0.14370398223400116,
               0.06001351401209831,
               0.08142665773630142,
               -0.09323478490114212,
               0.17768561840057373,
               0.17594534158706665,
               0.024092236533761024,
               0.1049022376537323,
               -0.13451188802719116,
               -0.12607800960540771,
               0.09300286322832108,
               -0.10963986814022064,
               0.2551313042640686,
               0.019294243305921555,
               -0.3327706754207611,
               -0.17571575939655304,
               -0.2700079679489136,
               0.0567699559032917,
               0.2785137891769409,
               -0.17129282653331757,
               0.06295673549175262,
               0.045087214559316635,
               -0.006340994965285063,
               -0.11946030706167221,
               0.011551925912499428,
               0.12341354042291641,
               -0.1562802642583847,
               -0.08547736704349518,
               0.07725055515766144,
               0.05631055310368538,
               -0.19664840400218964,
               0.0016075014136731625,
               -0.0012589860707521439,
               -0.06374068558216095,
               0.06738820672035217,
               -0.08035482466220856,
               0.11405953764915466,
               -0.17727366089820862,
               0.118207648396492,
               -0.13786879181861877,
               -0.18201403319835663,
               0.05402727425098419,
               0.11390924453735352,
               -0.16775494813919067,
               0.09763388335704803,
               -0.07240063697099686,
               -0.14806386828422546,
               -0.1827463060617447,
               -0.10298359394073486,
               -0.04016456753015518,
               -0.08631757646799088,
               -0.05696862190961838,
               0.08290352672338486,
               0.11513356119394302,
               0.04761839658021927,
               0.12371709197759628,
               -0.05362161621451378,
               0.05885272100567818,
               -0.07812178879976273,
               -0.005144669208675623,
               0.05734972655773163,
               0.1803949475288391,
               0.012674890458583832,
               0.05347003787755966,
               -0.05551407113671303,
               -0.0035580829717218876,
               -0.10510968416929245,
               -0.0608157180249691,
               0.024654414504766464,
               -0.09741656482219696,
               0.14732058346271515,
               0.23277856409549713,
               0.009346987120807171,
               0.04541574418544769,
               -0.09440350532531738,
               0.02546207793056965,
               0.1486382931470871,
               -0.08483665436506271,
               -0.05186168849468231,
               0.10553668439388275,
               0.04432511329650879,
               -0.005221752915531397,
               0.10218872874975204,
               0.08719771355390549,
               0.17761871218681335,
               0.18675468862056732,
               0.013090286403894424,
               0.165208101272583,
               0.05062968283891678,
               -0.18163365125656128,
               0.08478565514087677,
               -0.09803225100040436,
               -0.08898836374282837,
               0.11732147634029388,
               -0.03309432789683342,
               0.09060528874397278,
               -0.04650035873055458,
               -0.14583876729011536,
               -0.04918760806322098
            ],
            [
               -0.11472777277231216,
               -0.10841923952102661,
               0.14665177464485168,
               0.15085454285144806,
               0.11630269885063171,
               -0.002717658644542098,
               -0.05325176939368248,
               -0.10656469315290451,
               -0.04801525920629501,
               -0.12445779889822006,
               -0.011550864204764366,
               0.15822918713092804,
               0.19861312210559845,
               0.01424663420766592,
               -0.00041486741974949837,
               -0.007880832068622112,
               -0.03978636860847473,
               0.3133540153503418,
               0.08944066613912582,
               -0.0899386778473854,
               0.030039820820093155,
               -0.16338475048542023,
               0.06405916810035706,
               0.008739368990063667,
               0.1604619175195694,
               -0.07747145742177963,
               0.07081543654203415,
               -0.09063319861888885,
               -0.01722284033894539,
               0.11933783441781998,
               -0.07567236572504044,
               0.16235575079917908,
               0.028929302468895912,
               0.04310012236237526,
               0.2107411026954651,
               -0.01125240046530962,
               0.062121834605932236,
               -0.07192189246416092,
               -0.03843005746603012,
               -0.19672392308712006,
               -0.054857704788446426,
               -0.15648886561393738,
               -0.14729446172714233,
               0.086852066218853,
               -0.02043987065553665,
               -0.07067348062992096,
               0.21228203177452087,
               -0.14311929047107697,
               0.003757644910365343,
               0.08292245864868164,
               -0.142508402466774,
               0.13625620305538177,
               -0.12385006248950958,
               0.1490364521741867,
               0.15981680154800415,
               -0.08006609231233597,
               0.056570664048194885,
               -0.12365737557411194,
               0.15051448345184326,
               0.15471042692661285,
               -0.13245899975299835,
               0.12156899273395538,
               0.06231927126646042,
               -0.15964706242084503,
               0.006003563292324543,
               0.18848590552806854,
               0.13690327107906342,
               0.08292995393276215,
               -0.16548675298690796,
               0.14735490083694458,
               -0.1683647185564041,
               -0.13139401376247406,
               0.07606223225593567,
               0.047154881060123444,
               0.06309565156698227,
               0.10792277753353119,
               -0.06308760493993759,
               -0.21534094214439392,
               0.17262059450149536,
               -0.16937659680843353,
               0.04718424379825592,
               -0.04093528538942337,
               -0.11442273110151291,
               -0.10338003188371658,
               0.067208431661129,
               -0.13851489126682281,
               -0.15509946644306183,
               -0.04495982453227043,
               0.09547995775938034,
               0.1904907077550888,
               -0.11692515760660172,
               0.02648879401385784,
               -0.18988938629627228,
               0.12046802043914795,
               -0.07950019836425781,
               0.023150013759732246,
               0.06545967608690262,
               0.03893401473760605,
               0.025035783648490906,
               0.13311223685741425,
               -0.0013189903693273664,
               -0.22384941577911377,
               0.07298494130373001,
               -0.006146005820482969
            ],
            [
               -0.136001318693161,
               0.13924288749694824,
               0.003646421479061246,
               -0.037994544953107834,
               0.14396226406097412,
               -0.08338360488414764,
               0.03960111364722252,
               -0.023944459855556488,
               0.2390686720609665,
               -0.1412910670042038,
               0.16412311792373657,
               -0.03393520042300224,
               0.10752033442258835,
               -0.17682084441184998,
               -0.07593013346195221,
               -0.1646171659231186,
               0.11184454709291458,
               0.437773734331131,
               -0.2650729715824127,
               -0.1498280018568039,
               0.024703817442059517,
               -0.1428595334291458,
               0.28605467081069946,
               0.3330783247947693,
               0.1521751582622528,
               -0.006398705765604973,
               0.0055912695825099945,
               0.0135028176009655,
               -0.04758061096072197,
               -0.006266196258366108,
               -0.049233101308345795,
               -0.0536738820374012,
               -0.12393969297409058,
               -0.10098451375961304,
               0.00014443662075791508,
               0.09870686382055283,
               -0.10530690848827362,
               -0.1403622031211853,
               0.12214691936969757,
               -0.18024244904518127,
               -0.34661996364593506,
               -0.08036717027425766,
               0.1979396939277649,
               0.19517876207828522,
               -0.04568132013082504,
               -0.3182408809661865,
               0.25456875562667847,
               -0.16774073243141174,
               -0.1690576672554016,
               -0.05936388298869133,
               0.04457826912403107,
               -0.03640630096197128,
               -0.07908561825752258,
               0.22683385014533997,
               -0.17291030287742615,
               0.12078295648097992,
               -0.009894859045743942,
               0.1878369003534317,
               0.11603657156229019,
               0.04733363538980484,
               0.016282454133033752,
               -0.061529602855443954,
               0.13876540958881378,
               -0.07927481830120087,
               0.003955697175115347,
               0.06307775527238846,
               0.08813755959272385,
               -0.21622586250305176,
               -0.14693580567836761,
               -0.11977928131818771,
               0.06074398756027222,
               0.15284976363182068,
               0.016672831028699875,
               0.05839311331510544,
               -0.1025414913892746,
               0.14426331222057343,
               0.22663196921348572,
               0.042346756905317307,
               -0.1660558134317398,
               0.023229015991091728,
               0.05728645995259285,
               -0.039115648716688156,
               0.1270768940448761,
               0.0597996860742569,
               0.20210784673690796,
               -0.03748812898993492,
               -0.04493262618780136,
               0.13427643477916718,
               0.08639863133430481,
               0.06371935456991196,
               -0.08398525416851044,
               0.19492563605308533,
               0.19885766506195068,
               -0.04226504638791084,
               -0.23108942806720734,
               -0.27787405252456665,
               0.05641205236315727,
               -0.022190039977431297,
               0.012882586568593979,
               0.06251247227191925,
               -0.0074107893742620945,
               -0.07284645736217499,
               0.08229687064886093,
               0.0029612102080136538
            ],
            [
               -0.0621267594397068,
               -0.07414115965366364,
               -0.09378030151128769,
               -0.20267349481582642,
               -0.003169800154864788,
               0.10153313726186752,
               -0.09868934750556946,
               -0.08791445940732956,
               0.10220779478549957,
               -0.1754879504442215,
               0.18032512068748474,
               -0.081202931702137,
               0.16228733956813812,
               -0.010674192570149899,
               -0.1514696180820465,
               -0.0498102605342865,
               -0.08178701996803284,
               0.5562544465065002,
               -0.05618779733777046,
               -0.2006334662437439,
               -0.17668984830379486,
               -0.25466760993003845,
               0.20990747213363647,
               0.20968881249427795,
               -0.15671369433403015,
               -0.04060883820056915,
               -0.28372785449028015,
               -0.09433620423078537,
               -0.08684318512678146,
               -0.06446895748376846,
               -0.18451273441314697,
               0.047271884977817535,
               -0.09454543888568878,
               0.10656184703111649,
               0.032347168773412704,
               -0.0005864999257028103,
               -0.05681827664375305,
               0.03279367461800575,
               -0.0023093342315405607,
               0.03174149617552757,
               -0.19361761212348938,
               0.023291753605008125,
               0.07515047490596771,
               -0.11514941602945328,
               0.22015100717544556,
               -0.10246697068214417,
               0.03948894143104553,
               -0.16031789779663086,
               0.10762232542037964,
               0.06724105030298233,
               -0.08753997087478638,
               -0.05584399774670601,
               -0.21214132010936737,
               0.18825122714042664,
               0.06562904268503189,
               0.0025599098298698664,
               0.21899768710136414,
               0.0004551791353151202,
               -0.05748289078474045,
               -0.15590651333332062,
               0.0999644547700882,
               -0.07754804939031601,
               -0.07445374876260757,
               0.19228148460388184,
               -0.038932256400585175,
               -0.029797101393342018,
               0.09947766363620758,
               0.09037236869335175,
               0.1000947579741478,
               -0.05671823024749756,
               -0.18216197192668915,
               -0.052212778478860855,
               0.1914289891719818,
               0.06017567217350006,
               -0.08141019940376282,
               0.16178058087825775,
               0.2599228620529175,
               -0.05770235136151314,
               -0.21163561940193176,
               -0.034672822803258896,
               -0.020741557702422142,
               -0.11326581239700317,
               0.11740437150001526,
               0.04780084639787674,
               0.04718849062919617,
               0.0950939878821373,
               0.08145274221897125,
               -0.15988878905773163,
               0.11594906449317932,
               -0.035263922065496445,
               -0.007430512458086014,
               -0.02586529031395912,
               0.012778917327523232,
               -0.0731738731265068,
               0.07187198102474213,
               -0.009425727650523186,
               0.1072043776512146,
               -0.028056422248482704,
               0.007735314313322306,
               -0.20376333594322205,
               -0.19666457176208496,
               -0.1633908748626709,
               0.18153895437717438,
               0.15401425957679749
            ],
            [
               0.13282468914985657,
               -0.04794015735387802,
               -0.15227696299552917,
               0.012875199317932129,
               0.08261983096599579,
               0.10777424275875092,
               0.004313679877668619,
               0.08506958931684494,
               -0.12923413515090942,
               -0.0570361502468586,
               -0.17782607674598694,
               -0.024445954710245132,
               -0.08529676496982574,
               -0.13433007895946503,
               0.10470135509967804,
               -0.03679567947983742,
               0.02943033166229725,
               -0.17754602432250977,
               0.16504491865634918,
               -0.002011915436014533,
               -0.13081923127174377,
               -0.03543597087264061,
               -0.14517544209957123,
               0.18993468582630157,
               -0.16229958832263947,
               0.13678836822509766,
               0.04338975250720978,
               0.1610613614320755,
               0.05484319105744362,
               -0.07220502197742462,
               0.15951231122016907,
               0.11974342912435532,
               -0.13530384004116058,
               0.026006316766142845,
               -0.09011702984571457,
               -0.15824322402477264,
               -0.10901165008544922,
               -0.17095033824443817,
               0.21818649768829346,
               0.14354848861694336,
               -0.1343175619840622,
               0.13379937410354614,
               0.13490165770053864,
               0.1878449022769928,
               -0.0003674655163194984,
               0.1344783753156662,
               0.03903941065073013,
               -0.0864521786570549,
               0.0635438784956932,
               0.019238045439124107,
               -0.03924836218357086,
               -0.025792589411139488,
               -0.14361488819122314,
               0.10527943819761276,
               -0.16338978707790375,
               -0.03530801832675934,
               0.01914123259484768,
               0.11363265663385391,
               -0.15539422631263733,
               0.01343489158898592,
               -0.07171598821878433,
               -0.0428975373506546,
               -0.1476500928401947,
               0.052260495722293854,
               -0.12007688730955124,
               0.02084929123520851,
               0.024885116145014763,
               -0.09500560909509659,
               0.03409199044108391,
               -0.04458024352788925,
               -0.19211120903491974,
               -0.09788057953119278,
               -0.02298506163060665,
               0.1055506095290184,
               0.05573130026459694,
               0.09400561451911926,
               -0.016649426892399788,
               0.02078329399228096,
               0.04004703462123871,
               0.12979213893413544,
               -0.14798486232757568,
               0.19871988892555237,
               -0.13514909148216248,
               0.11791767925024033,
               -0.016221897676587105,
               0.1082066148519516,
               -0.18539434671401978,
               -0.16733171045780182,
               0.002067067427560687,
               0.04493356868624687,
               0.0009381707641296089,
               -0.05822095647454262,
               0.16216643154621124,
               0.09083417057991028,
               -0.0794910416007042,
               0.02383607253432274,
               -0.1602633148431778,
               0.19157178699970245,
               -0.15667197108268738,
               -0.16232627630233765,
               -0.030647803097963333,
               0.10585825145244598,
               0.12716767191886902,
               0.07049722969532013
            ],
            [
               -0.04443817585706711,
               -0.06744978576898575,
               -0.08163190633058548,
               0.11147766560316086,
               -0.04069950059056282,
               -0.12531398236751556,
               0.17748381197452545,
               0.06966040283441544,
               0.1292143315076828,
               0.09702416509389877,
               -0.018487410619854927,
               0.06926386058330536,
               -0.15518181025981903,
               -0.10141530632972717,
               0.07846669107675552,
               0.09031185507774353,
               0.15915875136852264,
               -0.3447193503379822,
               -0.023570381104946136,
               0.34109893441200256,
               0.12228500843048096,
               0.15770432353019714,
               0.03159748762845993,
               -0.2509792447090149,
               -0.0623738169670105,
               -0.17415091395378113,
               0.19007261097431183,
               0.1288902312517166,
               0.05425620079040527,
               -0.03668203949928284,
               -0.13076730072498322,
               -0.009034642949700356,
               0.033145561814308167,
               -0.22917674481868744,
               -0.0014312019338831306,
               0.050714876502752304,
               -0.11806122958660126,
               0.14455005526542664,
               -0.08905626833438873,
               0.15113626420497894,
               0.22186700999736786,
               0.05139129236340523,
               0.10845140367746353,
               -0.1808144748210907,
               -0.2692355215549469,
               0.1589508056640625,
               -0.17372901737689972,
               -0.12542079389095306,
               0.1017230674624443,
               -0.20372748374938965,
               -0.08771757036447525,
               -0.025270624086260796,
               0.19078265130519867,
               -0.1464938372373581,
               -0.19769857823848724,
               -0.0073575591668486595,
               0.056997090578079224,
               -0.13897433876991272,
               -0.13274116814136505,
               -0.02887093275785446,
               0.20713050663471222,
               0.19308944046497345,
               -0.08724738657474518,
               0.04374346137046814,
               0.12686005234718323,
               -0.15111570060253143,
               -0.008049515075981617,
               -0.11977525055408478,
               -0.10194287449121475,
               0.19188092648983002,
               0.1083052009344101,
               0.0012952904216945171,
               -0.06492960453033447,
               0.08917927742004395,
               0.06486397981643677,
               -0.16247965395450592,
               -0.051178425550460815,
               0.09291788935661316,
               0.11160476505756378,
               -0.007923571392893791,
               -0.18109169602394104,
               0.09543618559837341,
               0.13774967193603516,
               -0.17537350952625275,
               -0.19065526127815247,
               0.12768413126468658,
               0.30334219336509705,
               -0.06870296597480774,
               -0.2071886956691742,
               -0.08486542850732803,
               0.0036539151333272457,
               0.16020244359970093,
               -0.13892681896686554,
               -0.2382906973361969,
               0.024546880275011063,
               0.15799269080162048,
               0.05261092260479927,
               -0.06412070244550705,
               -0.03340931981801987,
               -0.16639083623886108,
               -0.09037576615810394,
               0.07499193400144577,
               0.10689108073711395,
               -0.058564238250255585
            ],
            [
               0.1589052677154541,
               -0.14451131224632263,
               0.041307251900434494,
               -0.09737919270992279,
               0.12127403169870377,
               -0.05338609218597412,
               -0.049227114766836166,
               0.14191634953022003,
               -0.04193481057882309,
               -0.1805972307920456,
               -0.008237953297793865,
               -0.11152643710374832,
               0.0006402425933629274,
               0.06428212672472,
               -0.11776149272918701,
               0.08922409266233444,
               0.02305796928703785,
               -0.010538366623222828,
               0.0863412618637085,
               0.0639815628528595,
               0.13244321942329407,
               -0.054189302027225494,
               0.11171544343233109,
               0.24368803203105927,
               -0.06188039854168892,
               0.17505070567131042,
               -0.1394423544406891,
               -0.006025461480021477,
               -0.193887859582901,
               -0.09352809190750122,
               0.012629658915102482,
               -0.17383447289466858,
               0.029719676822423935,
               -0.18496915698051453,
               -0.09352478384971619,
               -0.1148938462138176,
               -0.009611274115741253,
               0.0072522396221756935,
               -0.018717531114816666,
               -0.17479842901229858,
               -0.2591598927974701,
               0.15468983352184296,
               -0.1686614453792572,
               0.07092317938804626,
               0.07074517756700516,
               0.14096970856189728,
               -0.09064292907714844,
               -0.05952814966440201,
               0.13030102849006653,
               -0.15937447547912598,
               -0.14568780362606049,
               0.18869899213314056,
               0.04525512829422951,
               -0.14605845510959625,
               -0.08676108717918396,
               -0.18025217950344086,
               0.060733478516340256,
               -0.10829614847898483,
               -0.051487620919942856,
               0.1735183447599411,
               0.08039063960313797,
               0.11651590466499329,
               -0.03150466829538345,
               0.1449117213487625,
               -0.07515665143728256,
               0.11487878113985062,
               0.07158444821834564,
               -0.11484317481517792,
               0.077938511967659,
               0.1464109569787979,
               -0.17296436429023743,
               0.045070793479681015,
               0.1915542632341385,
               0.16495166718959808,
               0.08572639524936676,
               0.04352349787950516,
               -0.06087161973118782,
               -0.042018938809633255,
               0.15115703642368317,
               -0.016745077446103096,
               0.17977851629257202,
               0.11664079129695892,
               -0.04790865257382393,
               0.025808950886130333,
               0.07502993941307068,
               -0.056606560945510864,
               -0.09286618232727051,
               -0.19362066686153412,
               0.1133679524064064,
               -0.17473524808883667,
               0.0072169918566942215,
               -0.09576869010925293,
               0.14979059994220734,
               -0.1498381644487381,
               0.14385683834552765,
               -0.09606405347585678,
               0.07274675369262695,
               0.09680722653865814,
               -0.02423706091940403,
               0.05744253471493721,
               0.18147629499435425,
               0.04803508520126343,
               0.16598458588123322,
               -0.06333951652050018
            ],
            [
               0.03662613034248352,
               0.05856114625930786,
               0.12807731330394745,
               0.14572586119174957,
               -0.08361700177192688,
               -0.017562000080943108,
               0.12434219568967819,
               -0.009756803512573242,
               -0.06896040588617325,
               0.18009306490421295,
               -0.008645311929285526,
               -0.04344305023550987,
               -0.09057433903217316,
               -0.18018969893455505,
               -0.09900915622711182,
               -0.015078463591635227,
               0.14264370501041412,
               0.17852865159511566,
               -0.09837564826011658,
               0.07157367467880249,
               -0.19338524341583252,
               -0.04774516448378563,
               0.03955914080142975,
               0.20433926582336426,
               0.09280958771705627,
               0.02359488233923912,
               -0.03052084520459175,
               -0.17624817788600922,
               0.16012923419475555,
               -0.06457330286502838,
               0.18456719815731049,
               0.010770944878458977,
               -0.17973826825618744,
               0.08137532323598862,
               -0.19883906841278076,
               0.18178777396678925,
               -0.02272993139922619,
               -0.13627174496650696,
               -0.02964850701391697,
               -0.10486124455928802,
               0.07175416499376297,
               0.1243145614862442,
               0.0967535749077797,
               0.07896482199430466,
               -0.14236336946487427,
               0.025723010301589966,
               0.0023752041161060333,
               0.16304358839988708,
               -0.15127716958522797,
               0.11591579020023346,
               -0.09131091833114624,
               -0.16817528009414673,
               0.04796506464481354,
               0.1865531951189041,
               -0.11010657250881195,
               -0.08893553167581558,
               -0.16339796781539917,
               0.16541439294815063,
               0.1697525680065155,
               0.1780085265636444,
               0.03269685432314873,
               -0.005396564025431871,
               -0.13165222108364105,
               0.11367426812648773,
               -0.15783198177814484,
               -0.1026979386806488,
               -0.08207563310861588,
               0.0019581124652177095,
               -0.03605113551020622,
               0.11028927564620972,
               0.14108243584632874,
               -0.033842965960502625,
               0.06120656803250313,
               -0.135068878531456,
               0.04673304781317711,
               0.1288628876209259,
               -0.11060883104801178,
               0.02391163818538189,
               -0.17570120096206665,
               -0.02825542725622654,
               0.06581363081932068,
               -0.01762811280786991,
               -0.03424418717622757,
               0.12148209661245346,
               0.10288551449775696,
               -0.17679300904273987,
               -0.07208418846130371,
               -0.18908070027828217,
               -0.08880699425935745,
               0.10390251874923706,
               0.17362390458583832,
               -0.13999606668949127,
               0.011347020044922829,
               -0.18061646819114685,
               -0.07175666838884354,
               -0.07663542777299881,
               -0.18258975446224213,
               0.1296282410621643,
               0.09675690531730652,
               -0.12650370597839355,
               -0.12998554110527039,
               0.06374026089906693,
               -0.04869189113378525,
               0.043252263218164444
            ],
            [
               0.09994223713874817,
               -0.00890344474464655,
               -0.15899839997291565,
               0.07734405994415283,
               -0.03176235407590866,
               -0.02521086111664772,
               -0.05384600907564163,
               -0.17434857785701752,
               -0.023831268772482872,
               -0.012942243367433548,
               0.06737658381462097,
               -0.12298154830932617,
               -0.12425854057073593,
               0.12329834699630737,
               0.047014251351356506,
               -0.09653371572494507,
               0.08741313964128494,
               -0.07863263785839081,
               0.08374878764152527,
               -0.08166790753602982,
               -0.13341276347637177,
               -0.19513656198978424,
               0.051102299243211746,
               0.1814640760421753,
               -0.11178019642829895,
               -0.052584607154130936,
               -0.09213528037071228,
               -0.1861882209777832,
               0.11140138655900955,
               -0.06641805917024612,
               0.1006866917014122,
               -0.12431731820106506,
               0.06878791749477386,
               -0.17552481591701508,
               0.19470150768756866,
               -0.1918509602546692,
               0.08972838521003723,
               -0.053499650210142136,
               0.1414329558610916,
               0.028274452313780785,
               0.06049003824591637,
               0.023318618535995483,
               0.18589650094509125,
               0.028033465147018433,
               0.10209028422832489,
               -0.013351845555007458,
               0.19673025608062744,
               -0.012118374928832054,
               -0.039232634007930756,
               -0.03752472251653671,
               -0.00852992758154869,
               -0.03621227666735649,
               0.06441065669059753,
               0.17309075593948364,
               0.10104072839021683,
               0.08127324283123016,
               0.13774441182613373,
               -0.016212882474064827,
               -0.04413345828652382,
               0.16010239720344543,
               -0.18188504874706268,
               -0.06147318333387375,
               -0.018796617165207863,
               -0.15711259841918945,
               -0.20638984441757202,
               -0.06819059699773788,
               -0.023096922785043716,
               -0.055423520505428314,
               0.10579591244459152,
               0.05701005458831787,
               0.16047129034996033,
               -0.07207992672920227,
               -0.11396612226963043,
               -0.1815335601568222,
               -0.032214246690273285,
               0.07415865361690521,
               0.07388903200626373,
               0.06993807107210159,
               -0.0280629713088274,
               -0.08951759338378906,
               0.13325084745883942,
               0.050708115100860596,
               -0.14163783192634583,
               0.02939026430249214,
               0.06653731316328049,
               -0.17014791071414948,
               -0.17271366715431213,
               -0.04429859668016434,
               0.007013865280896425,
               0.12227335572242737,
               0.1677989512681961,
               -0.1390831470489502,
               -0.09880267828702927,
               0.1130223274230957,
               0.04771966114640236,
               -0.08997133374214172,
               0.20194318890571594,
               -0.11401011049747467,
               0.1633034646511078,
               0.014774465002119541,
               -0.05635099858045578,
               0.01884252391755581,
               0.06502615660429001,
               -0.09962602704763412
            ],
            [
               0.15712623298168182,
               0.04626944661140442,
               0.03707551956176758,
               0.036583028733730316,
               -0.012916459701955318,
               -0.02566169947385788,
               -0.18751509487628937,
               0.15648697316646576,
               0.056546177715063095,
               -0.0036084153689444065,
               0.12276660650968552,
               0.23210619390010834,
               -0.10559375584125519,
               0.017892101779580116,
               -0.13428963720798492,
               -0.1488218456506729,
               0.14324267208576202,
               -0.23875214159488678,
               0.19335730373859406,
               0.2416544109582901,
               -0.08966363966464996,
               0.20237764716148376,
               -0.1330094039440155,
               -0.18272948265075684,
               -0.17609760165214539,
               -0.10194100439548492,
               0.18205761909484863,
               -0.06867364794015884,
               -0.0502176508307457,
               -0.09072045981884003,
               -0.16658473014831543,
               -0.1164545789361,
               -0.19615116715431213,
               -0.211116760969162,
               -0.18081052601337433,
               0.0843406394124031,
               -0.0327896922826767,
               0.015176890417933464,
               -0.01755044423043728,
               0.09025243669748306,
               0.16003228724002838,
               0.012221365235745907,
               0.05664268508553505,
               -0.21430513262748718,
               -0.12747003138065338,
               0.24761684238910675,
               0.1202944964170456,
               0.1480868011713028,
               -0.08096303045749664,
               -0.21885138750076294,
               -0.04980556666851044,
               0.05392541363835335,
               -0.17854690551757812,
               -0.1762831062078476,
               0.12587441504001617,
               -0.10189869999885559,
               -0.15736588835716248,
               0.08400438725948334,
               0.1271239072084427,
               0.14076882600784302,
               0.21256166696548462,
               -0.12351484596729279,
               0.052008602768182755,
               -0.19922278821468353,
               -0.08050950616598129,
               -0.01368101965636015,
               -0.035332903265953064,
               0.06337811052799225,
               -0.12589581310749054,
               0.07622397691011429,
               0.04226057976484299,
               -0.06091027706861496,
               0.12433826178312302,
               0.16163629293441772,
               0.03165014088153839,
               -0.18895886838436127,
               -0.1605302393436432,
               0.20852723717689514,
               -0.148805633187294,
               0.03591892123222351,
               -0.18411785364151,
               -0.18575546145439148,
               -0.19062472879886627,
               0.1277177333831787,
               0.022988781332969666,
               -0.1326446831226349,
               0.2902955710887909,
               -0.01124884095042944,
               0.0763058215379715,
               0.07646866887807846,
               0.1853882372379303,
               0.038072697818279266,
               0.07975003868341446,
               -0.03997815027832985,
               0.04393109679222107,
               0.12942923605442047,
               0.1232009083032608,
               0.12669533491134644,
               -0.18226099014282227,
               0.11837467551231384,
               -0.12995368242263794,
               0.09401147812604904,
               -0.10286436975002289,
               -0.11895948648452759
            ],
            [
               -0.09348317235708237,
               0.13410408794879913,
               0.08421193063259125,
               -0.01704755425453186,
               0.12300904840230942,
               -0.15315021574497223,
               -0.17820635437965393,
               -0.08640462160110474,
               -0.02020326256752014,
               0.17733773589134216,
               0.18244507908821106,
               0.13563331961631775,
               -0.09958731383085251,
               0.03670402243733406,
               0.08561751991510391,
               0.08193768560886383,
               0.1733371615409851,
               0.09679551422595978,
               -0.15135671198368073,
               -0.18206380307674408,
               -0.008959660306572914,
               0.10703328251838684,
               0.18544475734233856,
               0.06803886592388153,
               -0.05563817918300629,
               -0.12479852885007858,
               0.052749741822481155,
               -0.15944114327430725,
               0.03204668313264847,
               -0.16065190732479095,
               0.18468129634857178,
               0.13974763453006744,
               0.01819518208503723,
               -0.11058533936738968,
               0.13004128634929657,
               0.13685666024684906,
               -0.13952098786830902,
               0.12005624920129776,
               0.08992970734834671,
               -0.09115862846374512,
               -0.2408641129732132,
               0.17495478689670563,
               0.0706808790564537,
               0.1770164668560028,
               0.18437474966049194,
               -0.11862693727016449,
               -0.028097696602344513,
               -0.04055304080247879,
               0.05805659294128418,
               0.09575530886650085,
               0.14609147608280182,
               -0.025697793811559677,
               -0.19435156881809235,
               0.1895827203989029,
               -0.061533987522125244,
               -0.06333210319280624,
               0.06768707931041718,
               -0.12258052825927734,
               -0.007590390741825104,
               0.07599781453609467,
               -0.12650619447231293,
               0.020414186641573906,
               0.055751971900463104,
               -0.042561210691928864,
               -0.03596298396587372,
               0.12122907489538193,
               -0.1783372014760971,
               0.17104430496692657,
               0.019738459959626198,
               0.06888584047555923,
               0.053039878606796265,
               0.16968443989753723,
               0.18383486568927765,
               -0.20307472348213196,
               0.041658323258161545,
               -0.06715752184391022,
               0.06970624625682831,
               -0.01282570231705904,
               0.18493764102458954,
               0.050901204347610474,
               -0.13213017582893372,
               0.005644226912409067,
               -0.14630627632141113,
               0.038790397346019745,
               0.06277124583721161,
               0.16797910630702972,
               -0.03089369274675846,
               -0.04090728610754013,
               -0.10959318280220032,
               0.012941783294081688,
               0.09315889328718185,
               -0.030983159318566322,
               0.16129395365715027,
               -0.16994963586330414,
               -0.09772952646017075,
               -0.1818806231021881,
               -0.10870081931352615,
               -0.18451587855815887,
               -0.16180846095085144,
               -0.05111218988895416,
               0.01764027401804924,
               0.06456565111875534,
               -0.0982782393693924,
               -0.06513373553752899
            ],
            [
               -0.17501644790172577,
               -0.04598749801516533,
               -0.1150372177362442,
               0.109655000269413,
               0.042102910578250885,
               -0.010413541458547115,
               0.08901328593492508,
               0.09941456466913223,
               0.06429119408130646,
               0.06926964223384857,
               0.013888155110180378,
               0.1643117517232895,
               -0.14100991189479828,
               0.08224829286336899,
               0.06538669764995575,
               0.033094700425863266,
               0.08256357908248901,
               0.10109523683786392,
               0.1242927759885788,
               -0.020154936239123344,
               0.147389754652977,
               0.037014007568359375,
               -0.1510118842124939,
               0.23053260147571564,
               -0.18688106536865234,
               0.03049025870859623,
               0.14495821297168732,
               0.1957738995552063,
               -0.10514964908361435,
               -0.059858404099941254,
               0.13573874533176422,
               0.00784514844417572,
               0.1063304990530014,
               0.17441239953041077,
               0.09150329232215881,
               -0.059743236750364304,
               0.22458124160766602,
               0.04999232292175293,
               -0.058210499584674835,
               0.09196536242961884,
               -0.09905826300382614,
               -0.18856412172317505,
               -0.16760405898094177,
               -0.0940241664648056,
               0.0013755859108641744,
               -0.0519992932677269,
               -0.022481665015220642,
               -0.11588609963655472,
               0.08432852476835251,
               -0.07619786262512207,
               -0.07118181139230728,
               0.09836027771234512,
               0.16034121811389923,
               -0.040945589542388916,
               -0.0336422324180603,
               0.12326230108737946,
               0.1226525753736496,
               -0.06896796822547913,
               -0.17238222062587738,
               0.006008577067404985,
               0.0951237604022026,
               0.12978263199329376,
               0.07349639385938644,
               0.04463311657309532,
               -0.08177784085273743,
               -0.1522936075925827,
               -0.12780311703681946,
               -0.009954214096069336,
               -0.11722350865602493,
               -0.03272485360503197,
               0.06262752413749695,
               -0.071843720972538,
               -0.008661293424665928,
               -0.18296635150909424,
               0.06673573702573776,
               -0.034124311059713364,
               0.09680891036987305,
               0.1575615257024765,
               -0.08490138500928879,
               -0.1682448536157608,
               0.01796082779765129,
               -0.09401479363441467,
               -0.038386132568120956,
               0.11273987591266632,
               -0.04524904489517212,
               0.11927680671215057,
               -0.02434668503701687,
               -0.0695602297782898,
               0.08328600227832794,
               -0.07214639335870743,
               0.1768692284822464,
               0.05860007926821709,
               -0.16457965970039368,
               -0.08122045546770096,
               0.08308418095111847,
               0.09428057074546814,
               0.12484557181596756,
               0.006876833736896515,
               -0.1876545399427414,
               -0.05278344824910164,
               -0.08193366974592209,
               0.11190330237150192,
               0.20097680389881134,
               -0.12830746173858643
            ],
            [
               -0.12209618836641312,
               0.143450528383255,
               -0.09178947657346725,
               0.023974817246198654,
               0.09587081521749496,
               0.1590774655342102,
               0.08195943385362625,
               -0.0737772062420845,
               0.09783977270126343,
               0.15515269339084625,
               -0.19086578488349915,
               -0.12260952591896057,
               0.028379343450069427,
               -0.09589637815952301,
               -0.18421851098537445,
               0.013876957818865776,
               -0.06179901957511902,
               -0.03607610613107681,
               0.03214787691831589,
               -0.21948418021202087,
               -0.05694858729839325,
               0.12759555876255035,
               0.12174151837825775,
               -0.1261700540781021,
               -0.05099879577755928,
               -0.05523120239377022,
               0.1939597725868225,
               0.184195876121521,
               -0.17479732632637024,
               -0.02211122401058674,
               0.14719872176647186,
               -0.1661553680896759,
               0.05508795008063316,
               -0.1110188215970993,
               0.10851291567087173,
               0.10809504985809326,
               0.14464767277240753,
               0.00730810547247529,
               -0.1084812581539154,
               -0.12005351483821869,
               -0.038727112114429474,
               -0.14571769535541534,
               -0.07282799482345581,
               0.028248777613043785,
               0.14251673221588135,
               0.173993781208992,
               0.08421510457992554,
               -0.1307123601436615,
               0.08124049007892609,
               0.09753341972827911,
               0.10405565053224564,
               0.17262865602970123,
               -0.08541646599769592,
               0.12521430850028992,
               0.1430450677871704,
               -0.05635806545615196,
               0.09778368473052979,
               -0.01149988267570734,
               0.11338092386722565,
               -0.19827240705490112,
               -0.20167723298072815,
               0.18695847690105438,
               -0.1485195904970169,
               0.021372050046920776,
               0.05881344899535179,
               -0.19543886184692383,
               0.1281769573688507,
               -0.16912531852722168,
               -0.07543086260557175,
               -0.13195748627185822,
               -0.08175506442785263,
               0.07261552661657333,
               -0.07335209846496582,
               0.1543031483888626,
               0.014007722958922386,
               -0.06662148237228394,
               0.02619132213294506,
               -0.06367552280426025,
               -0.016273576766252518,
               -0.05992218852043152,
               0.12679767608642578,
               0.1476421058177948,
               0.17626753449440002,
               0.033842865377664566,
               -0.1385514736175537,
               0.05226631462574005,
               0.03545532003045082,
               -0.11220983415842056,
               -0.10505813360214233,
               0.13844971358776093,
               0.03278025984764099,
               -0.08163101226091385,
               0.03907659649848938,
               0.1286226063966751,
               0.14869721233844757,
               -0.16732725501060486,
               -0.025868792086839676,
               0.11691662669181824,
               0.02563394606113434,
               0.08453745394945145,
               -0.10354548692703247,
               -0.0980166643857956,
               0.06217898428440094,
               -0.06440166383981705
            ],
            [
               0.04168476164340973,
               -0.0556986927986145,
               -0.11901942640542984,
               0.07384195923805237,
               0.030744876712560654,
               0.09946213662624359,
               -0.1727980226278305,
               -0.10977265983819962,
               0.148380309343338,
               0.17205902934074402,
               0.06882192939519882,
               0.1816551387310028,
               0.0021462643053382635,
               -0.1993568390607834,
               0.1543866991996765,
               -0.08716551959514618,
               -0.07529882341623306,
               -0.21278400719165802,
               0.2733498811721802,
               0.23837687075138092,
               0.1635257750749588,
               0.10520042479038239,
               -0.19400370121002197,
               -0.036406222730875015,
               -0.09698129445314407,
               -0.015139161609113216,
               -0.07536240667104721,
               -0.11131223291158676,
               -0.17862994968891144,
               0.04877327010035515,
               -0.0546782985329628,
               -0.15760448575019836,
               0.042654849588871,
               0.056501537561416626,
               0.05823657661676407,
               0.03784431517124176,
               -0.037315286695957184,
               -0.10217180848121643,
               0.16617335379123688,
               0.0916203185915947,
               0.05093548819422722,
               -0.0071976990438997746,
               -0.14444509148597717,
               -0.15954837203025818,
               -0.17961418628692627,
               -0.10060141235589981,
               0.11433929204940796,
               0.16421642899513245,
               -0.12501300871372223,
               -0.005565841682255268,
               -0.03416932746767998,
               -0.0398017019033432,
               0.11605794727802277,
               -0.12951698899269104,
               -0.12921608984470367,
               0.06931884586811066,
               0.14625702798366547,
               -0.1091877669095993,
               -0.10246247053146362,
               0.036426033824682236,
               0.18512561917304993,
               0.09881426393985748,
               -0.1797117441892624,
               0.044404514133930206,
               -0.02159292809665203,
               0.042798805981874466,
               -0.0268599521368742,
               0.17096982896327972,
               -0.20247048139572144,
               0.11780513823032379,
               -0.12956568598747253,
               -0.05977688357234001,
               -0.02885250747203827,
               0.1435442715883255,
               -0.12364614009857178,
               -0.1017037108540535,
               0.01292424276471138,
               -0.054498203098773956,
               0.17152158915996552,
               -0.13596171140670776,
               0.16352826356887817,
               -0.15419942140579224,
               -0.12376563251018524,
               0.07152073830366135,
               -0.034027792513370514,
               0.11931917071342468,
               0.08935628086328506,
               0.1136927530169487,
               0.017356425523757935,
               -0.03737736865878105,
               0.048190005123615265,
               0.007044742815196514,
               0.14511172473430634,
               -0.03977110609412193,
               0.2040100246667862,
               0.10990411043167114,
               0.09449121356010437,
               0.16220834851264954,
               -0.21162937581539154,
               -0.09925757348537445,
               0.14696237444877625,
               -0.046820979565382004,
               -0.2100244164466858,
               -0.05719402804970741
            ],
            [
               0.1863129734992981,
               -0.07189793884754181,
               -0.20073816180229187,
               -0.015177574008703232,
               0.08732568472623825,
               0.03354530781507492,
               -0.02713978849351406,
               0.0018257522024214268,
               -0.06756504625082016,
               -0.06367291510105133,
               -0.12874573469161987,
               0.06589628010988235,
               0.09448838233947754,
               -0.12869668006896973,
               -0.017494473606348038,
               -0.08514569699764252,
               0.05242853984236717,
               0.48716193437576294,
               -0.15565906465053558,
               -0.3805346190929413,
               -0.04904180020093918,
               0.005367003381252289,
               -0.02312135510146618,
               0.3808698058128357,
               -0.14887166023254395,
               0.08685828000307083,
               -0.07227378338575363,
               -0.03005298785865307,
               -0.05621791258454323,
               -0.18496902287006378,
               0.16921879351139069,
               0.06276638060808182,
               0.07960492372512817,
               -0.05042281374335289,
               0.02566792070865631,
               0.1549493670463562,
               -0.019774848595261574,
               0.11526640504598618,
               -0.02166820876300335,
               -0.008241278119385242,
               -0.026221465319395065,
               -0.022976696491241455,
               -0.06405925750732422,
               0.06322994828224182,
               -0.02581898309290409,
               -0.19092702865600586,
               0.07259829342365265,
               -0.11459917575120926,
               -0.20515960454940796,
               0.19975991547107697,
               -0.20204660296440125,
               -0.09805311262607574,
               0.08550664037466049,
               0.07840298116207123,
               0.0871134027838707,
               -0.10464930534362793,
               -0.050094928592443466,
               -0.10352421551942825,
               -0.103460893034935,
               -0.028611905872821808,
               -0.1699991524219513,
               -0.03619181737303734,
               0.11873739212751389,
               0.18555645644664764,
               -0.10821868479251862,
               -0.10753673315048218,
               -0.06366263329982758,
               -0.07133039832115173,
               0.051168881356716156,
               -0.14067375659942627,
               -0.08894893527030945,
               -0.06817642599344254,
               -0.11855141818523407,
               0.14423325657844543,
               0.0877130776643753,
               -0.07720132917165756,
               0.02360767312347889,
               0.04563203826546669,
               0.08677453547716141,
               0.006982424296438694,
               -0.1541898548603058,
               -0.07332196831703186,
               -0.1539350003004074,
               0.1235818862915039,
               0.15130950510501862,
               -0.03753449767827988,
               -0.22767677903175354,
               -0.12180980294942856,
               -0.18895985186100006,
               -0.16229450702667236,
               -0.1825076788663864,
               -0.10193214565515518,
               0.15751485526561737,
               -0.04204706847667694,
               0.06603693217039108,
               -0.1878136247396469,
               0.09053552895784378,
               0.03934286907315254,
               0.22803349792957306,
               -0.17904824018478394,
               -0.10937745869159698,
               -0.2359587401151657,
               0.022572819143533707,
               -0.06662414222955704
            ],
            [
               -0.09132501482963562,
               0.050433866679668427,
               0.06315919756889343,
               0.09335681051015854,
               -0.019724372774362564,
               -0.0972028598189354,
               0.06465055048465729,
               0.030706657096743584,
               0.15619340538978577,
               0.008029032498598099,
               -0.06121503934264183,
               0.08760731667280197,
               0.0949835404753685,
               -0.12281335890293121,
               0.010256470181047916,
               0.03290659189224243,
               -0.18350952863693237,
               0.3314358592033386,
               -0.015666194260120392,
               -0.295981764793396,
               0.049508821219205856,
               0.09711714088916779,
               0.2619574964046478,
               0.1854233294725418,
               -0.1508638858795166,
               0.018467668443918228,
               0.1122816875576973,
               -0.07745465636253357,
               0.181680366396904,
               0.1388106495141983,
               -0.11595739424228668,
               0.1144026592373848,
               -0.11313190311193466,
               0.05105460435152054,
               0.19572347402572632,
               -0.1350187510251999,
               -0.052496809512376785,
               0.01901312544941902,
               0.042544640600681305,
               -0.1222609132528305,
               -0.26444345712661743,
               -0.07536214590072632,
               0.15618672966957092,
               -0.0744442492723465,
               0.16918198764324188,
               -0.11531858891248703,
               0.10447362810373306,
               -0.08875086903572083,
               -0.008876150473952293,
               -0.0039160423912107944,
               -0.1768486648797989,
               0.13288097083568573,
               -0.13238155841827393,
               -0.11865421384572983,
               -0.17725026607513428,
               0.0715206116437912,
               -0.16889649629592896,
               0.022030698135495186,
               0.09528569877147675,
               0.05202709510922432,
               -0.16543610394001007,
               -0.011715410277247429,
               0.16855034232139587,
               0.14997650682926178,
               0.1609686017036438,
               -0.1398402899503708,
               -0.19766931235790253,
               0.16271986067295074,
               -0.017920775339007378,
               -0.06166243553161621,
               0.1285649985074997,
               -0.04241003096103668,
               0.1430271714925766,
               -0.00018758840451482683,
               -0.005065861623734236,
               0.03114321455359459,
               0.03137436509132385,
               -0.06611742824316025,
               0.07786867767572403,
               -0.07769156992435455,
               -0.10251880437135696,
               -0.14373686909675598,
               -0.15813250839710236,
               -0.059057436883449554,
               0.1882643699645996,
               0.09843315929174423,
               -0.0519302561879158,
               0.042425140738487244,
               -0.021332288160920143,
               0.12030386179685593,
               0.10976366698741913,
               -0.09578106552362442,
               0.17243410646915436,
               0.24722352623939514,
               -0.21749599277973175,
               -0.059757135808467865,
               0.24498973786830902,
               0.15748481452465057,
               0.19810251891613007,
               0.03511621803045273,
               -0.15795865654945374,
               -0.18370163440704346,
               0.19281236827373505,
               0.10266584903001785
            ],
            [
               0.2007182091474533,
               0.19668802618980408,
               -0.12691257894039154,
               -0.15340279042720795,
               -0.1702839583158493,
               -0.10985293239355087,
               -0.054386310279369354,
               -0.09201889485120773,
               -0.12154728174209595,
               -0.17129619419574738,
               -0.0668926015496254,
               -0.08775752782821655,
               0.16638685762882233,
               0.15975263714790344,
               0.10921773314476013,
               -0.11538050323724747,
               -0.010598067194223404,
               0.5751141905784607,
               -0.30687326192855835,
               -0.41443386673927307,
               -0.029580485075712204,
               -0.09699635952711105,
               0.15353330969810486,
               0.40402916073799133,
               0.029390158131718636,
               0.11599773168563843,
               -0.19269610941410065,
               0.08983151614665985,
               -0.019496092572808266,
               0.07861637324094772,
               0.1379442662000656,
               -0.10194852948188782,
               -0.0925307348370552,
               -0.09687243402004242,
               -0.03681470453739166,
               0.13480104506015778,
               0.2572900056838989,
               0.033114831894636154,
               0.17948126792907715,
               0.15680821239948273,
               -0.2707781493663788,
               0.15844769775867462,
               0.059888407588005066,
               0.03180772811174393,
               -0.040723372250795364,
               -0.23436002433300018,
               -0.028553159907460213,
               0.07004445046186447,
               -0.029239900410175323,
               -0.08712872862815857,
               0.0854768231511116,
               -0.11130928248167038,
               0.15746943652629852,
               -0.015018651261925697,
               0.03886783868074417,
               -0.1711389571428299,
               0.029475992545485497,
               0.005957258399575949,
               0.0905425101518631,
               0.1317717432975769,
               0.032941997051239014,
               0.05007742717862129,
               -0.008801436983048916,
               0.01771928183734417,
               -0.17013388872146606,
               0.19887103140354156,
               0.12929345667362213,
               -0.02322956919670105,
               -0.08391886949539185,
               -0.18654461205005646,
               -0.029465215280652046,
               0.06119914352893829,
               -0.16814090311527252,
               -0.11609610170125961,
               0.03935369476675987,
               0.14091168344020844,
               0.039836231619119644,
               -0.041006263345479965,
               0.006831835489720106,
               -0.08773025870323181,
               0.19618326425552368,
               -0.04036837816238403,
               -0.12596045434474945,
               -0.006114212330430746,
               -0.1586582213640213,
               -0.1651173084974289,
               -0.2942070960998535,
               -0.13014717400074005,
               0.08218837529420853,
               0.16864459216594696,
               -0.1154722198843956,
               0.11210373044013977,
               -0.09191682934761047,
               0.09332024306058884,
               0.051667824387550354,
               0.0171174556016922,
               0.21289220452308655,
               0.0612555630505085,
               0.033291641622781754,
               0.049627549946308136,
               0.06571846455335617,
               -0.04510504752397537,
               0.1720409095287323,
               0.08146924525499344
            ],
            [
               0.10900984704494476,
               0.13422617316246033,
               -0.06159697473049164,
               0.01660105586051941,
               -0.19269804656505585,
               -0.12482506781816483,
               0.18822483718395233,
               -0.03254609555006027,
               0.15193070471286774,
               -0.08945737779140472,
               -0.022930346429347992,
               0.06685133278369904,
               0.022663651034235954,
               -0.08724509924650192,
               -0.18495625257492065,
               -0.16690455377101898,
               -0.13173505663871765,
               0.15345454216003418,
               -0.09277739375829697,
               -0.08699171245098114,
               0.06028763949871063,
               0.09262152761220932,
               0.0771586000919342,
               0.16028299927711487,
               -0.18942812085151672,
               -0.18993408977985382,
               -0.029571939259767532,
               0.059419505298137665,
               0.15568318963050842,
               -0.08485585451126099,
               -0.01140530314296484,
               -0.11502810567617416,
               0.031090471893548965,
               -0.18757569789886475,
               0.19069619476795197,
               0.17023006081581116,
               -0.18594902753829956,
               0.12623576819896698,
               0.15282323956489563,
               -0.183842733502388,
               -0.054854486137628555,
               -0.1815522015094757,
               0.07885394245386124,
               0.1434406042098999,
               -0.13989566266536713,
               -0.10095341503620148,
               -0.12177868187427521,
               -0.10150159150362015,
               0.0730883926153183,
               0.11299797147512436,
               -0.14333589375019073,
               0.15543991327285767,
               -0.1023322194814682,
               -0.02671302668750286,
               0.17248837649822235,
               -0.07180113345384598,
               0.1717725247144699,
               -0.15602408349514008,
               0.14654025435447693,
               0.09423892945051193,
               0.13494037091732025,
               0.10086340457201004,
               0.1155790165066719,
               0.006267308257520199,
               -0.08242957293987274,
               0.10255318135023117,
               -0.027679558843374252,
               0.1910247653722763,
               0.10896369814872742,
               0.09512597322463989,
               -0.1962304413318634,
               -0.14306552708148956,
               0.1894254982471466,
               0.07110507786273956,
               -0.03303617611527443,
               -0.18378551304340363,
               -0.005372058134526014,
               0.1611330211162567,
               0.10889910161495209,
               0.0529475100338459,
               -0.1425640881061554,
               -0.11671063303947449,
               -0.043003544211387634,
               -0.18521061539649963,
               -0.10465512424707413,
               0.16567130386829376,
               -0.029245242476463318,
               -0.17929351329803467,
               -0.18522609770298004,
               0.13604575395584106,
               -0.1659209281206131,
               -0.14441519975662231,
               -0.13447320461273193,
               0.050186850130558014,
               -0.1850326657295227,
               -0.03577866777777672,
               -0.08623309433460236,
               -0.11518333107233047,
               -0.1396782100200653,
               -0.061177995055913925,
               -0.15432390570640564,
               0.15867502987384796,
               -0.09363435208797455,
               0.12188916653394699
            ],
            [
               -0.030248146504163742,
               -0.1372595727443695,
               0.08431990444660187,
               -0.06182475388050079,
               -0.0747312679886818,
               0.11645841598510742,
               -0.0259439367800951,
               -0.17346568405628204,
               0.027797721326351166,
               0.182562455534935,
               0.15253303945064545,
               -0.20538224279880524,
               0.14034701883792877,
               0.11004283279180527,
               -0.10895580798387527,
               -0.0036948348861187696,
               -0.08956757187843323,
               0.46819689869880676,
               0.024243712425231934,
               -0.2857808768749237,
               -0.16036848723888397,
               -0.12524551153182983,
               0.21081723272800446,
               0.2739688456058502,
               -0.04660814628005028,
               0.10032883286476135,
               -0.10060364007949829,
               -0.03220723569393158,
               0.10830438137054443,
               0.06534145772457123,
               -0.04669579118490219,
               0.18205012381076813,
               0.08142559975385666,
               -0.08762101829051971,
               0.15250661969184875,
               0.17840832471847534,
               -0.11792716383934021,
               0.014562646858394146,
               0.12364458292722702,
               -0.06413061916828156,
               -0.0745067149400711,
               0.10563311725854874,
               0.14406678080558777,
               0.10691709816455841,
               0.013683545403182507,
               -0.20555435121059418,
               -0.053047552704811096,
               -0.045601073652505875,
               0.11085537821054459,
               0.12387816607952118,
               -0.15793739259243011,
               0.12415292114019394,
               0.046495676040649414,
               0.12802034616470337,
               0.15094073116779327,
               -0.11492400616407394,
               -0.011065611615777016,
               0.20007990300655365,
               0.12058473378419876,
               -0.0074880304746329784,
               0.03279467299580574,
               -0.09307362884283066,
               0.1594298928976059,
               -0.04936244711279869,
               -0.12651991844177246,
               0.04444055259227753,
               -0.1359460949897766,
               -0.18508711457252502,
               -0.07006879895925522,
               0.09600774943828583,
               -0.0802624374628067,
               0.16778583824634552,
               -0.05120158940553665,
               -0.12813973426818848,
               -0.1321992725133896,
               -0.1261518895626068,
               -0.0907105803489685,
               -0.10057725012302399,
               -0.07793311029672623,
               -0.025325404480099678,
               -0.08324220031499863,
               -0.020529665052890778,
               0.19879968464374542,
               0.15415258705615997,
               -0.0838756337761879,
               0.10506737232208252,
               -0.10869552195072174,
               0.12335660308599472,
               -0.10389100015163422,
               0.038364578038454056,
               -0.1119442731142044,
               -0.179653599858284,
               -0.17522720992565155,
               -0.10969726741313934,
               -0.029551304876804352,
               0.009884444996714592,
               -0.1507759839296341,
               -0.1853276491165161,
               0.16692864894866943,
               0.12519247829914093,
               0.04428321123123169,
               -0.1948007196187973,
               0.12337027490139008,
               -0.010552422143518925
            ],
            [
               -0.1349768042564392,
               0.08759165555238724,
               0.08792482316493988,
               0.17326639592647552,
               -0.04479348659515381,
               -0.04272312670946121,
               -0.12869100272655487,
               -0.022660987451672554,
               -0.015453584492206573,
               -0.17257122695446014,
               0.022944742813706398,
               -0.09558040648698807,
               0.19193823635578156,
               0.05361846834421158,
               -0.02464873343706131,
               -0.08774775266647339,
               -0.14342139661312103,
               0.06206219643354416,
               -0.2210167795419693,
               0.1282854527235031,
               -0.13832823932170868,
               -0.09681858122348785,
               -0.1052553579211235,
               0.05435970053076744,
               0.006441098637878895,
               0.1918395459651947,
               -0.14378181099891663,
               -0.10848908871412277,
               -0.12377370148897171,
               -0.18870587646961212,
               0.17261004447937012,
               0.10835669189691544,
               0.06650250405073166,
               0.07775073498487473,
               -0.0262856874614954,
               0.18957661092281342,
               0.15042740106582642,
               0.18048346042633057,
               0.20314130187034607,
               0.05422838777303696,
               -0.10800157487392426,
               -0.1735893338918686,
               0.056508298963308334,
               0.036219242960214615,
               -0.1575501561164856,
               -0.13863801956176758,
               0.1843709498643875,
               0.031501106917858124,
               0.035743243992328644,
               -0.06967312097549438,
               -0.06733420491218567,
               -0.08433377742767334,
               0.005016344133764505,
               -0.13959284126758575,
               -0.03135521709918976,
               0.034525565803050995,
               0.15582501888275146,
               -0.18827158212661743,
               -0.09817817062139511,
               -0.08507739007472992,
               0.07018960267305374,
               -0.026369275525212288,
               0.005557527765631676,
               0.05989943444728851,
               -0.0941321924328804,
               -0.0427619144320488,
               -0.13549017906188965,
               0.05378333851695061,
               0.03908466547727585,
               -0.10552375018596649,
               0.12137243151664734,
               0.01540718600153923,
               -0.08426389843225479,
               -0.016543015837669373,
               0.08516662567853928,
               0.04425852373242378,
               -0.12352167814970016,
               0.12533867359161377,
               0.14817090332508087,
               0.1706402748823166,
               0.14821438491344452,
               0.16836145520210266,
               -0.04202636331319809,
               -0.05413275957107544,
               -0.06059734523296356,
               0.150312140583992,
               0.07828474044799805,
               -0.03045577183365822,
               -0.10042794048786163,
               -0.06905053555965424,
               -0.013173438608646393,
               0.10434464365243912,
               -0.006418205797672272,
               -0.07896138727664948,
               -0.11592431366443634,
               -0.056655969470739365,
               0.08687592297792435,
               0.17108465731143951,
               0.16394482553005219,
               -0.05912572517991066,
               -0.16543333232402802,
               0.1172100231051445,
               -0.0016709633637219667,
               -0.10114315897226334
            ],
            [
               0.11654148995876312,
               0.12537196278572083,
               0.0645187720656395,
               0.11982394009828568,
               -0.04847434163093567,
               -0.02973087690770626,
               0.133704274892807,
               0.1206597089767456,
               -0.030293798074126244,
               0.1511572003364563,
               0.041010335087776184,
               -0.1229347437620163,
               0.003925819415599108,
               -0.13145673274993896,
               -0.11027054488658905,
               0.06838405132293701,
               0.13919632136821747,
               -0.5711382031440735,
               0.055861398577690125,
               0.32466059923171997,
               0.030568022280931473,
               0.29986274242401123,
               -0.038327861577272415,
               -0.2505815923213959,
               0.1649034023284912,
               -0.15406827628612518,
               0.006274272687733173,
               -0.11949984729290009,
               0.09628628939390182,
               0.13859327137470245,
               0.025327205657958984,
               -0.1253892034292221,
               0.04585261270403862,
               0.03662290424108505,
               -0.12896357476711273,
               0.1844031810760498,
               -0.22001761198043823,
               -0.08094123750925064,
               -0.06740912795066833,
               0.1721320003271103,
               0.23844540119171143,
               -0.04196484386920929,
               0.04522513598203659,
               0.0762253850698471,
               -0.22579053044319153,
               0.16548164188861847,
               -0.22909513115882874,
               0.0772119015455246,
               0.20108336210250854,
               0.11904951930046082,
               0.18487362563610077,
               -0.083396777510643,
               0.04721571505069733,
               -0.04806914180517197,
               0.004654509015381336,
               -0.11137300729751587,
               -0.09217216819524765,
               -0.22334273159503937,
               0.09293363243341446,
               -0.014982982538640499,
               -0.15002794563770294,
               0.13853219151496887,
               -0.058948274701833725,
               0.1457158774137497,
               0.05736076459288597,
               0.10510735213756561,
               0.001528163906186819,
               0.15114322304725647,
               0.019521398469805717,
               -0.01441694051027298,
               -0.10964355617761612,
               -0.13763214647769928,
               -0.06722188740968704,
               0.14109429717063904,
               0.12006498873233795,
               -0.008110455237329006,
               0.026763685047626495,
               0.16768351197242737,
               -0.1256900429725647,
               -0.13851916790008545,
               -0.16485662758350372,
               0.10022033751010895,
               0.002678734017536044,
               0.00607798108831048,
               0.08366665989160538,
               0.1229778602719307,
               0.21085725724697113,
               -0.18512439727783203,
               0.09652920812368393,
               -0.10747449845075607,
               -0.057963430881500244,
               0.01697448082268238,
               -0.16816559433937073,
               -0.03597217798233032,
               0.1426408439874649,
               0.14126692712306976,
               0.06331124901771545,
               0.01629781536757946,
               -0.18748147785663605,
               0.22198669612407684,
               0.06713253259658813,
               0.24136532843112946,
               0.031141094863414764,
               -0.19196480512619019
            ],
            [
               0.06773003190755844,
               0.0978250578045845,
               0.02171836420893669,
               -0.171495720744133,
               -0.16458842158317566,
               0.18218901753425598,
               0.11011862009763718,
               -0.14775240421295166,
